FANN_FLO_2.1
num_layers=4
learning_rate=0.001000
connection_rate=1.000000
network_type=0
learning_momentum=0.950000
training_algorithm=2
train_error_function=1
train_stop_function=0
cascade_output_change_fraction=0.010000
quickprop_decay=-0.000100
quickprop_mu=1.750000
rprop_increase_factor=1.200000
rprop_decrease_factor=0.500000
rprop_delta_min=0.000000
rprop_delta_max=50.000000
rprop_delta_zero=0.100000
cascade_output_stagnation_epochs=12
cascade_candidate_change_fraction=0.010000
cascade_candidate_stagnation_epochs=12
cascade_max_out_epochs=150
cascade_min_out_epochs=50
cascade_max_cand_epochs=150
cascade_min_cand_epochs=50
cascade_num_candidate_groups=2
bit_fail_limit=3.49999994039535522461e-01
cascade_candidate_limit=1.00000000000000000000e+03
cascade_weight_multiplier=4.00000005960464477539e-01
cascade_activation_functions_count=10
cascade_activation_functions=3 5 7 8 10 11 14 15 16 17 
cascade_activation_steepnesses_count=4
cascade_activation_steepnesses=2.50000000000000000000e-01 5.00000000000000000000e-01 7.50000000000000000000e-01 1.00000000000000000000e+00 
layer_sizes=13 13 13 13 
scale_included=0
neurons (num_inputs, activation_function, activation_steepness)=(0, 0, 0.00000000000000000000e+00) (0, 0, 0.00000000000000000000e+00) (0, 0, 0.00000000000000000000e+00) (0, 0, 0.00000000000000000000e+00) (0, 0, 0.00000000000000000000e+00) (0, 0, 0.00000000000000000000e+00) (0, 0, 0.00000000000000000000e+00) (0, 0, 0.00000000000000000000e+00) (0, 0, 0.00000000000000000000e+00) (0, 0, 0.00000000000000000000e+00) (0, 0, 0.00000000000000000000e+00) (0, 0, 0.00000000000000000000e+00) (0, 0, 0.00000000000000000000e+00) (13, 6, 5.00000000000000000000e-01) (13, 6, 5.00000000000000000000e-01) (13, 6, 5.00000000000000000000e-01) (13, 6, 5.00000000000000000000e-01) (13, 6, 5.00000000000000000000e-01) (13, 6, 5.00000000000000000000e-01) (13, 6, 5.00000000000000000000e-01) (13, 6, 5.00000000000000000000e-01) (13, 6, 5.00000000000000000000e-01) (13, 6, 5.00000000000000000000e-01) (13, 6, 5.00000000000000000000e-01) (13, 6, 5.00000000000000000000e-01) (0, 6, 0.00000000000000000000e+00) (13, 6, 5.00000000000000000000e-01) (13, 6, 5.00000000000000000000e-01) (13, 6, 5.00000000000000000000e-01) (13, 6, 5.00000000000000000000e-01) (13, 6, 5.00000000000000000000e-01) (13, 6, 5.00000000000000000000e-01) (13, 6, 5.00000000000000000000e-01) (13, 6, 5.00000000000000000000e-01) (13, 6, 5.00000000000000000000e-01) (13, 6, 5.00000000000000000000e-01) (13, 6, 5.00000000000000000000e-01) (13, 6, 5.00000000000000000000e-01) (0, 6, 0.00000000000000000000e+00) (13, 6, 5.00000000000000000000e-01) (13, 6, 5.00000000000000000000e-01) (13, 6, 5.00000000000000000000e-01) (13, 6, 5.00000000000000000000e-01) (13, 6, 5.00000000000000000000e-01) (13, 6, 5.00000000000000000000e-01) (13, 6, 5.00000000000000000000e-01) (13, 6, 5.00000000000000000000e-01) (13, 6, 5.00000000000000000000e-01) (13, 6, 5.00000000000000000000e-01) (13, 6, 5.00000000000000000000e-01) (13, 6, 5.00000000000000000000e-01) (0, 6, 0.00000000000000000000e+00) 
connections (connected_to_neuron, weight)=(0, 5.18038269042968750000e+02) (1, 1.19796301269531250000e+03) (2, -5.02656402587890625000e+02) (3, -1.34735229492187500000e+03) (4, -1.15232495117187500000e+03) (5, 1.26121875000000000000e+03) (6, 1.39197009277343750000e+03) (7, 1.41859924316406250000e+03) (8, -7.02992675781250000000e+02) (9, -9.80707153320312500000e+02) (10, 7.99659912109375000000e+02) (11, 1.49720068359375000000e+03) (12, 6.88740463256835937500e+01) (0, -1.90129119873046875000e+02) (1, 8.88177551269531250000e+02) (2, 1.36958728027343750000e+03) (3, 5.04536560058593750000e+02) (4, -7.25624938964843750000e+02) (5, 1.29080004882812500000e+03) (6, 5.73123901367187500000e+02) (7, 1.24143814086914062500e+02) (8, 6.70363769531250000000e+02) (9, -1.29822509765625000000e+03) (10, 1.27897583007812500000e+03) (11, 1.47000000000000000000e+03) (12, -1.87484192848205566406e+00) (0, -4.98342346191406250000e+02) (1, 1.44547705078125000000e+03) (2, -6.73115600585937500000e+02) (3, -1.50000000000000000000e+03) (4, -1.07958145141601562500e+02) (5, 1.39300708007812500000e+03) (6, 1.44011584472656250000e+03) (7, -2.27632293701171875000e+02) (8, 4.54958190917968750000e+02) (9, -5.80623718261718750000e+02) (10, 1.03359899902343750000e+03) (11, 1.34487170410156250000e+03) (12, 1.04154457092285156250e+02) (0, 7.50931030273437500000e+02) (1, 4.15452178955078125000e+02) (2, -1.78638793945312500000e+02) (3, 1.34323266601562500000e+03) (4, 1.48237524414062500000e+03) (5, 1.20674963378906250000e+03) (6, -1.50000000000000000000e+03) (7, 1.01263977050781250000e+03) (8, 3.14018951416015625000e+02) (9, 9.07508056640625000000e+02) (10, 1.16643603515625000000e+03) (11, 1.34080004882812500000e+03) (12, -8.63799743652343750000e+01) (0, 7.89809204101562500000e+02) (1, -2.36424346923828125000e+02) (2, 8.56586227416992187500e+01) (3, -1.50000000000000000000e+03) (4, 1.44777734375000000000e+03) (5, 2.92446197509765625000e+02) (6, -1.46255993652343750000e+03) (7, 1.48404406738281250000e+03) (8, -8.09620971679687500000e+02) (9, -4.41376739501953125000e+02) (10, 1.50000000000000000000e+03) (11, -1.35634545898437500000e+03) (12, 7.90589332580566406250e-01) (0, -3.57651489257812500000e+02) (1, 1.48268652343750000000e+03) (2, 1.05104638671875000000e+03) (3, -1.31134704589843750000e+03) (4, 2.60052764892578125000e+02) (5, 1.46446301269531250000e+03) (6, 1.46846911621093750000e+03) (7, -4.97545104980468750000e+02) (8, -6.95562194824218750000e+02) (9, -8.63088989257812500000e+02) (10, 7.99659912109375000000e+02) (11, 1.30251416015625000000e+03) (12, 3.19590530395507812500e+01) (0, 1.29556262207031250000e+03) (1, -1.78271362304687500000e+02) (2, -1.18509228515625000000e+03) (3, 1.45138916015625000000e+03) (4, 1.34291906738281250000e+03) (5, 1.30794995117187500000e+03) (6, 7.69847839355468750000e+02) (7, 9.51511718750000000000e+02) (8, -4.88356933593750000000e+02) (9, 9.04091735839843750000e+02) (10, -5.48667984008789062500e+01) (11, -7.32090576171875000000e+02) (12, 2.46785564422607421875e+01) (0, 2.35979568481445312500e+02) (1, 1.20746130371093750000e+03) (2, 1.16454382324218750000e+03) (3, -1.50000000000000000000e+03) (4, 1.50280944824218750000e+02) (5, 1.48558044433593750000e+03) (6, 1.48763061523437500000e+03) (7, 7.82786010742187500000e+02) (8, -4.19453430175781250000e+02) (9, -7.91638549804687500000e+02) (10, -8.09055114746093750000e+02) (11, -1.55613128662109375000e+02) (12, 5.20848608016967773438e+00) (0, 5.78560424804687500000e+02) (1, 8.79352478027343750000e+02) (2, 1.29304797363281250000e+03) (3, -6.65228393554687500000e+02) (4, 4.98590698242187500000e+02) (5, 9.31126220703125000000e+02) (6, 1.43650146484375000000e+03) (7, 8.53022521972656250000e+02) (8, 1.50000000000000000000e+03) (9, -1.16844726562500000000e+03) (10, 5.52477722167968750000e+02) (11, 1.50000000000000000000e+03) (12, -3.85607185363769531250e+01) (0, 6.70384887695312500000e+02) (1, 1.28277648925781250000e+02) (2, 1.50000000000000000000e+03) (3, -1.50000000000000000000e+03) (4, 1.24948791503906250000e+03) (5, 1.07483142089843750000e+03) (6, -4.82043457031250000000e+00) (7, 7.05404052734375000000e+02) (8, -4.56129837036132812500e+01) (9, 3.42034698486328125000e+02) (10, 6.54013671875000000000e+02) (11, 1.49458288574218750000e+03) (12, 4.10927696228027343750e+01) (0, 1.47651953125000000000e+03) (1, 1.50000000000000000000e+03) (2, 9.99262756347656250000e+02) (3, 1.32666918945312500000e+03) (4, 1.40378613281250000000e+03) (5, 9.87032836914062500000e+02) (6, -5.29770385742187500000e+02) (7, 5.53595520019531250000e+02) (8, -1.04695361328125000000e+03) (9, 1.48647607421875000000e+03) (10, 6.14433898925781250000e+02) (11, 1.70180191040039062500e+02) (12, 2.82107830047607421875e+01) (0, -5.74033752441406250000e+02) (1, 1.32459179687500000000e+03) (2, 6.34599182128906250000e+02) (3, -1.39693334960937500000e+03) (4, -3.42543334960937500000e+02) (5, 1.28685168457031250000e+03) (6, 6.56600036621093750000e+02) (7, -2.99323425292968750000e+02) (8, -3.53799377441406250000e+02) (9, -1.09810632324218750000e+03) (10, 1.14874890136718750000e+03) (11, 7.26290039062500000000e+02) (12, 1.99653282165527343750e+01) (13, 5.84397644042968750000e+02) (14, 9.95278472900390625000e+01) (15, 1.18233752441406250000e+03) (16, 1.46645141601562500000e+03) (17, 1.14305712890625000000e+03) (18, 9.76908996582031250000e+02) (19, 7.36021911621093750000e+02) (20, 3.56803817749023437500e+01) (21, -2.47987854003906250000e+02) (22, 1.44213427734375000000e+03) (23, 8.21890808105468750000e+02) (24, 8.96556701660156250000e+02) (25, -6.54788696289062500000e+02) (13, 9.78295410156250000000e+02) (14, 2.26819869995117187500e+02) (15, 1.49077929687500000000e+03) (16, -9.56085266113281250000e+02) (17, -1.20681274414062500000e+02) (18, 1.49979748535156250000e+03) (19, 1.50000000000000000000e+03) (20, 1.07934045410156250000e+03) (21, 8.46796264648437500000e+02) (22, -4.83411041259765625000e+02) (23, 2.14678543090820312500e+02) (24, 8.70339782714843750000e+02) (25, 1.41906445312500000000e+03) (13, -5.16385650634765625000e+01) (14, 5.07788452148437500000e+02) (15, -4.43636932373046875000e+02) (16, -1.04308044433593750000e+02) (17, 8.45362670898437500000e+02) (18, 7.51725036621093750000e+02) (19, -3.54259368896484375000e+02) (20, 1.27943908691406250000e+03) (21, -3.62301879882812500000e+02) (22, -6.19848632812500000000e+00) (23, -9.28096801757812500000e+02) (24, 1.38300979614257812500e+02) (25, -6.24614639282226562500e+01) (13, 1.50000000000000000000e+03) (14, 6.64176254272460937500e+01) (15, -2.61789855957031250000e+02) (16, -9.64144836425781250000e+02) (17, 1.22962670898437500000e+03) (18, 1.28073327636718750000e+03) (19, 1.04523999023437500000e+03) (20, 1.43672021484375000000e+03) (21, 5.63131713867187500000e+02) (22, 1.48801623535156250000e+03) (23, -1.04434899902343750000e+03) (24, 3.36274353027343750000e+02) (25, 9.97455505371093750000e+02) (13, 1.02549609375000000000e+03) (14, 2.91563964843750000000e+02) (15, 1.49619580078125000000e+03) (16, 9.45096923828125000000e+02) (17, 7.13093505859375000000e+02) (18, 1.44019567871093750000e+03) (19, -1.31475512695312500000e+03) (20, 1.46537658691406250000e+03) (21, 1.31683569335937500000e+03) (22, 1.27775610351562500000e+03) (23, 3.39225891113281250000e+02) (24, 4.41272155761718750000e+02) (25, 9.20949951171875000000e+02) (13, 1.49237182617187500000e+03) (14, -5.86372146606445312500e+01) (15, 6.42101501464843750000e+02) (16, -1.11028503417968750000e+03) (17, 1.35230664062500000000e+03) (18, 1.49532604980468750000e+03) (19, -5.59445991516113281250e+01) (20, 1.49999291992187500000e+03) (21, -9.63140380859375000000e+02) (22, 5.61554748535156250000e+02) (23, 6.77438415527343750000e+02) (24, 1.45084582519531250000e+03) (25, 1.49641601562500000000e+03) (13, -3.88977020263671875000e+02) (14, 4.56544494628906250000e+00) (15, 1.45505761718750000000e+03) (16, 9.42254211425781250000e+02) (17, 1.45973779296875000000e+03) (18, 3.95507598876953125000e+02) (19, 1.31210339355468750000e+03) (20, 1.06866149902343750000e+03) (21, 8.42067077636718750000e+02) (22, -3.44676788330078125000e+02) (23, -8.82853027343750000000e+02) (24, 3.67129425048828125000e+02) (25, -3.92383079528808593750e+01) (13, 1.33616650390625000000e+03) (14, 1.34191723632812500000e+03) (15, 4.09671875000000000000e+02) (16, -9.90964172363281250000e+02) (17, -1.35818151855468750000e+03) (18, 1.26607141113281250000e+03) (19, 8.27052078247070312500e+01) (20, 1.05584399414062500000e+03) (21, 1.43722570800781250000e+03) (22, 1.37386486816406250000e+03) (23, 1.36352233886718750000e+03) (24, 8.20446411132812500000e+02) (25, 7.44843017578125000000e+02) (13, 8.94746017456054687500e+01) (14, 1.70090751647949218750e+01) (15, -1.19587249755859375000e+01) (16, 1.06350303649902343750e+02) (17, 5.59120445251464843750e+01) (18, -4.77087348699569702148e-01) (19, 1.99767875671386718750e+01) (20, 9.59027099609375000000e+01) (21, -7.59912185668945312500e+01) (22, -4.97006568908691406250e+01) (23, 3.17432918548583984375e+01) (24, 8.98678283691406250000e+01) (25, 5.82812261581420898438e+00) (13, 1.44559350585937500000e+03) (14, 2.97134185791015625000e+02) (15, 1.49999829101562500000e+03) (16, 1.48447680664062500000e+03) (17, 1.10206140136718750000e+03) (18, -6.51241149902343750000e+02) (19, -1.48815527343750000000e+03) (20, 1.03497717285156250000e+03) (21, 1.37919104003906250000e+03) (22, -8.43712768554687500000e+02) (23, 1.33586523437500000000e+03) (24, 6.30932998657226562500e+01) (25, 4.94395690917968750000e+02) (13, 1.29447546386718750000e+03) (14, -6.21002197265625000000e+02) (15, 8.74671264648437500000e+02) (16, 1.16592199707031250000e+03) (17, -9.38932006835937500000e+02) (18, 1.20756823730468750000e+03) (19, -6.23503074645996093750e+01) (20, 1.49902697753906250000e+03) (21, 6.37582031250000000000e+02) (22, -8.77933349609375000000e+02) (23, 7.84751159667968750000e+02) (24, -7.41901874542236328125e+00) (25, 1.30858544921875000000e+03) (13, 4.63983398437500000000e+02) (14, 9.48906677246093750000e+02) (15, 1.19114245605468750000e+03) (16, 1.80256530761718750000e+02) (17, -6.78551269531250000000e+02) (18, 9.03297119140625000000e+02) (19, -1.24409838867187500000e+03) (20, 1.49945727539062500000e+03) (21, 1.50000000000000000000e+03) (22, 3.16681671142578125000e+02) (23, -1.50000000000000000000e+03) (24, 1.32827709960937500000e+03) (25, 3.31014976501464843750e+01) (26, 2.03093755990266799927e-02) (27, 2.29850783944129943848e-02) (28, -3.95308881998062133789e-02) (29, -5.41348801925778388977e-03) (30, -1.36173898354172706604e-02) (31, 8.37195590138435363770e-02) (32, -1.43614374101161956787e-02) (33, -2.26477608084678649902e-02) (34, 2.83142505213618278503e-03) (35, 1.39985457062721252441e-02) (36, 6.67501315474510192871e-02) (37, -1.34566221386194229126e-02) (38, 6.44143104553222656250e-01) (26, 2.57384121417999267578e-01) (27, 7.74585306644439697266e-02) (28, 1.87232941389083862305e-01) (29, 1.10748812556266784668e-01) (30, 3.61105889081954956055e-01) (31, 2.60281860828399658203e-01) (32, 1.45865291357040405273e-01) (33, 4.02385257184505462646e-02) (34, -4.92168664932250976562e-02) (35, 5.20214028656482696533e-02) (36, 4.47195805609226226807e-02) (37, 1.58445090055465698242e-01) (38, 1.55392062664031982422e+00) (26, 2.56878554821014404297e-01) (27, 1.89162358641624450684e-01) (28, 3.00914198160171508789e-01) (29, -1.06490641832351684570e-01) (30, 2.63527154922485351562e-01) (31, 3.84840428829193115234e-01) (32, -7.60722830891609191895e-02) (33, -3.04310973733663558960e-02) (34, 4.92017455399036407471e-02) (35, 9.59182456135749816895e-02) (36, -2.29178309440612792969e-01) (37, 9.56643372774124145508e-02) (38, 2.04411077499389648438e+00) (26, 1.10316000878810882568e-01) (27, 2.89485573768615722656e-01) (28, 7.76890665292739868164e-02) (29, 1.49466380476951599121e-01) (30, 1.18863582611083984375e-01) (31, 2.23579928278923034668e-01) (32, 1.26322787255048751831e-02) (33, -1.11020341515541076660e-01) (34, -8.10433179140090942383e-02) (35, 1.21122933924198150635e-01) (36, 5.51697127521038055420e-02) (37, 1.01124616339802742004e-02) (38, 1.34337437152862548828e+00) (26, 3.24132353067398071289e-01) (27, 1.85090512037277221680e-01) (28, 2.23034530878067016602e-01) (29, -1.62914738059043884277e-01) (30, 1.05397470295429229736e-01) (31, 2.23592847585678100586e-01) (32, -3.26185494661331176758e-01) (33, -5.91798312962055206299e-02) (34, 1.69871389865875244141e-01) (35, 2.04728916287422180176e-01) (36, 1.49988919496536254883e-01) (37, 1.30354523658752441406e-01) (38, 1.62402892112731933594e+00) (26, -6.17790892720222473145e-02) (27, 1.59216925501823425293e-01) (28, -1.48217216134071350098e-01) (29, -3.23554605245590209961e-01) (30, 3.29392105340957641602e-01) (31, 3.12686488032341003418e-02) (32, 1.86290368437767028809e-01) (33, 5.70669412612915039062e-01) (34, 2.43180304765701293945e-01) (35, -2.32000648975372314453e-01) (36, 3.41980278491973876953e-01) (37, 2.33458325266838073730e-01) (38, 1.84071350097656250000e+00) (26, -1.30206972360610961914e-01) (27, -2.61724174022674560547e-01) (28, 9.55721437931060791016e-02) (29, 1.63718432188034057617e-01) (30, 3.72677147388458251953e-02) (31, 3.87444525957107543945e-01) (32, 1.07018068432807922363e-01) (33, 1.28638133406639099121e-01) (34, 2.92814254760742187500e-01) (35, -1.55007883906364440918e-01) (36, 2.01822370290756225586e-01) (37, 2.48209759593009948730e-01) (38, 1.59404158592224121094e+00) (26, 4.50234189629554748535e-02) (27, 4.28421646356582641602e-01) (28, 4.35527116060256958008e-02) (29, 2.60155685245990753174e-02) (30, -1.25347718596458435059e-01) (31, 4.79952663183212280273e-01) (32, -3.25235009193420410156e-01) (33, -8.64534303545951843262e-02) (34, 1.87197759747505187988e-01) (35, -3.21044534444808959961e-01) (36, 3.26955795288085937500e-01) (37, 1.63576766848564147949e-01) (38, 1.80837774276733398438e+00) (26, 2.22324088215827941895e-01) (27, 7.87789747118949890137e-02) (28, -2.84443795680999755859e-01) (29, 1.03506267070770263672e-01) (30, 2.73060053586959838867e-01) (31, 8.36893022060394287109e-01) (32, 1.55144408345222473145e-01) (33, -9.27935838699340820312e-02) (34, 2.70387142896652221680e-01) (35, -2.04812586307525634766e-01) (36, -1.88462510704994201660e-01) (37, 3.84002029895782470703e-01) (38, 2.09560465812683105469e+00) (26, -6.99019879102706909180e-02) (27, 1.09727546572685241699e-01) (28, -5.18399737775325775146e-02) (29, 4.53145988285541534424e-02) (30, -1.44871160387992858887e-01) (31, 1.35341376066207885742e-01) (32, 2.04763598740100860596e-02) (33, -2.11809948086738586426e-01) (34, -2.02999506145715713501e-02) (35, 2.25950814783573150635e-02) (36, -3.20751443505287170410e-02) (37, 7.26750418543815612793e-02) (38, 9.29690301418304443359e-01) (26, -2.91570499539375305176e-02) (27, 3.57402414083480834961e-02) (28, -4.20676171779632568359e-03) (29, -6.54892716556787490845e-03) (30, 5.44267743825912475586e-02) (31, 6.63394778966903686523e-02) (32, -6.03995919227600097656e-02) (33, 7.70190656185150146484e-02) (34, -6.93154782056808471680e-02) (35, 4.64985109865665435791e-02) (36, 2.69332006573677062988e-02) (37, 2.79188692569732666016e-01) (38, 9.73706424236297607422e-01) (26, 1.57650664448738098145e-01) (27, -8.05667564272880554199e-02) (28, 1.58332124352455139160e-01) (29, 7.85324797034263610840e-02) (30, -2.14821875095367431641e-01) (31, 2.17581406235694885254e-01) (32, 1.52163520455360412598e-01) (33, 2.35920518636703491211e-01) (34, 2.90335398167371749878e-02) (35, 1.49058416485786437988e-01) (36, 1.62753701210021972656e-01) (37, 2.24036037921905517578e-01) (38, 1.42733728885650634766e+00) 