FANN_FLO_2.1
num_layers=4
learning_rate=0.700000
connection_rate=1.000000
network_type=0
learning_momentum=0.000000
training_algorithm=2
train_error_function=1
train_stop_function=0
cascade_output_change_fraction=0.010000
quickprop_decay=-0.000100
quickprop_mu=1.750000
rprop_increase_factor=1.200000
rprop_decrease_factor=0.500000
rprop_delta_min=0.000000
rprop_delta_max=50.000000
rprop_delta_zero=0.100000
cascade_output_stagnation_epochs=12
cascade_candidate_change_fraction=0.010000
cascade_candidate_stagnation_epochs=12
cascade_max_out_epochs=150
cascade_min_out_epochs=50
cascade_max_cand_epochs=150
cascade_min_cand_epochs=50
cascade_num_candidate_groups=2
bit_fail_limit=3.49999994039535522461e-01
cascade_candidate_limit=1.00000000000000000000e+03
cascade_weight_multiplier=4.00000005960464477539e-01
cascade_activation_functions_count=10
cascade_activation_functions=3 5 7 8 10 11 14 15 16 17 
cascade_activation_steepnesses_count=4
cascade_activation_steepnesses=2.50000000000000000000e-01 5.00000000000000000000e-01 7.50000000000000000000e-01 1.00000000000000000000e+00 
layer_sizes=9 21 13 9 
scale_included=0
neurons (num_inputs, activation_function, activation_steepness)=(0, 0, 0.00000000000000000000e+00) (0, 0, 0.00000000000000000000e+00) (0, 0, 0.00000000000000000000e+00) (0, 0, 0.00000000000000000000e+00) (0, 0, 0.00000000000000000000e+00) (0, 0, 0.00000000000000000000e+00) (0, 0, 0.00000000000000000000e+00) (0, 0, 0.00000000000000000000e+00) (0, 0, 0.00000000000000000000e+00) (9, 5, 5.00000000000000000000e-01) (9, 5, 5.00000000000000000000e-01) (9, 5, 5.00000000000000000000e-01) (9, 5, 5.00000000000000000000e-01) (9, 5, 5.00000000000000000000e-01) (9, 5, 5.00000000000000000000e-01) (9, 5, 5.00000000000000000000e-01) (9, 5, 5.00000000000000000000e-01) (9, 5, 5.00000000000000000000e-01) (9, 5, 5.00000000000000000000e-01) (9, 5, 5.00000000000000000000e-01) (9, 5, 5.00000000000000000000e-01) (9, 5, 5.00000000000000000000e-01) (9, 5, 5.00000000000000000000e-01) (9, 5, 5.00000000000000000000e-01) (9, 5, 5.00000000000000000000e-01) (9, 5, 5.00000000000000000000e-01) (9, 5, 5.00000000000000000000e-01) (9, 5, 5.00000000000000000000e-01) (9, 5, 5.00000000000000000000e-01) (0, 5, 0.00000000000000000000e+00) (21, 5, 5.00000000000000000000e-01) (21, 5, 5.00000000000000000000e-01) (21, 5, 5.00000000000000000000e-01) (21, 5, 5.00000000000000000000e-01) (21, 5, 5.00000000000000000000e-01) (21, 5, 5.00000000000000000000e-01) (21, 5, 5.00000000000000000000e-01) (21, 5, 5.00000000000000000000e-01) (21, 5, 5.00000000000000000000e-01) (21, 5, 5.00000000000000000000e-01) (21, 5, 5.00000000000000000000e-01) (21, 5, 5.00000000000000000000e-01) (0, 5, 0.00000000000000000000e+00) (13, 5, 5.00000000000000000000e-01) (13, 5, 5.00000000000000000000e-01) (13, 5, 5.00000000000000000000e-01) (13, 5, 5.00000000000000000000e-01) (13, 5, 5.00000000000000000000e-01) (13, 5, 5.00000000000000000000e-01) (13, 5, 5.00000000000000000000e-01) (13, 5, 5.00000000000000000000e-01) (0, 5, 0.00000000000000000000e+00) 
connections (connected_to_neuron, weight)=(0, 2.42471861839294433594e+00) (1, -7.97733426094055175781e-01) (2, 1.55398142337799072266e+00) (3, 2.01651496887207031250e+01) (4, 1.17372763156890869141e+00) (5, -2.16615772247314453125e+00) (6, 7.99409747123718261719e-01) (7, 1.05109345912933349609e+00) (8, 1.99538767337799072266e+00) (0, -1.13279342651367187500e+00) (1, 1.93985080718994140625e+00) (2, 3.40949654579162597656e-01) (3, -5.00780902802944183350e-03) (4, 1.06232476234436035156e+00) (5, -8.33395242691040039062e-01) (6, -6.47919058799743652344e-01) (7, 2.69892263412475585938e+00) (8, 2.03234577178955078125e+00) (0, 2.84979057312011718750e+00) (1, 3.11450421810150146484e-01) (2, 4.07999563217163085938e+00) (3, -2.89069223403930664062e+00) (4, -5.40189594030380249023e-02) (5, -2.67383217811584472656e+00) (6, 6.32170557975769042969e-01) (7, 1.11608409881591796875e+00) (8, -2.01385831832885742188e+00) (0, -7.33138859272003173828e-01) (1, -6.13088965415954589844e-01) (2, 1.22224295139312744141e+00) (3, 3.94454091787338256836e-01) (4, 3.43421578407287597656e+00) (5, -2.00211834907531738281e+00) (6, 1.17101931571960449219e+00) (7, -7.28674530982971191406e-01) (8, 1.16996157169342041016e+00) (0, 1.43318557739257812500e+00) (1, -4.01033782958984375000e+00) (2, 3.69347500801086425781e+00) (3, 5.51068687438964843750e+00) (4, 9.55116674304008483887e-02) (5, 4.65824723243713378906e-01) (6, -5.71872043609619140625e+00) (7, 3.08872532844543457031e+00) (8, 5.43935418128967285156e-01) (0, -4.20598924160003662109e-01) (1, -6.93888887763023376465e-02) (2, 3.09223309159278869629e-02) (3, 6.04137182235717773438e-01) (4, 9.37312185764312744141e-01) (5, 5.47363936901092529297e-01) (6, 1.35357439517974853516e-01) (7, 4.19072449207305908203e-01) (8, 7.18052685260772705078e-01) (0, 4.15006011724472045898e-01) (1, -1.67482376098632812500e-01) (2, 5.88300466537475585938e-01) (3, -1.00865626335144042969e+00) (4, -6.74458086490631103516e-01) (5, -7.84348174929618835449e-02) (6, 6.01698040962219238281e-01) (7, -8.58114436268806457520e-02) (8, 3.72733950614929199219e-01) (0, 2.09653067588806152344e+00) (1, 2.39169406890869140625e+00) (2, 3.15867733955383300781e+00) (3, 6.67950510978698730469e-01) (4, 5.56342482566833496094e-01) (5, -3.39510011672973632812e+00) (6, 1.17202115058898925781e+00) (7, 1.57578229904174804688e-01) (8, 2.57195711135864257812e+00) (0, 1.80029943585395812988e-01) (1, 4.60058510303497314453e-01) (2, -1.95244953036308288574e-01) (3, 1.18412487208843231201e-01) (4, -9.36222970485687255859e-02) (5, 4.82170015573501586914e-01) (6, -1.58025756478309631348e-01) (7, -6.97126388549804687500e-02) (8, -2.38300815224647521973e-01) (0, -2.57367372512817382812e-01) (1, -2.23471331596374511719e+00) (2, 3.09144735336303710938e+00) (3, 1.52326416969299316406e+00) (4, 2.04289579391479492188e+00) (5, -3.16447526216506958008e-01) (6, 1.25241076946258544922e+00) (7, 1.07077956199645996094e+00) (8, 2.47055053710937500000e-01) (0, -9.06151533126831054688e-01) (1, -3.03183972835540771484e-01) (2, 3.89877706766128540039e-01) (3, 7.48039364814758300781e-01) (4, 8.29737111926078796387e-02) (5, -1.89422219991683959961e-01) (6, 3.76217961311340332031e-01) (7, 4.81132604181766510010e-02) (8, 6.53622206300497055054e-03) (0, 3.19452226161956787109e-01) (1, 9.44146454334259033203e-01) (2, -3.29294490814208984375e+00) (3, -6.74665927886962890625e-01) (4, 8.47609281539916992188e-01) (5, 2.64149338006973266602e-01) (6, -4.82410937547683715820e-01) (7, 1.89213347434997558594e+00) (8, 4.73965972661972045898e-01) (0, 1.00789153575897216797e+00) (1, 1.38402092456817626953e+00) (2, 2.46728405356407165527e-01) (3, -7.88934454321861267090e-02) (4, 1.09888863563537597656e+00) (5, 1.11818003654479980469e+00) (6, -3.71872603893280029297e-01) (7, -1.10450662672519683838e-01) (8, 2.60023045539855957031e+00) (0, 7.36536026000976562500e-01) (1, -2.40415954589843750000e+00) (2, 1.70344805717468261719e+00) (3, 6.72870993614196777344e-01) (4, 1.78267097473144531250e+00) (5, -9.11005020141601562500e+00) (6, 6.91803157329559326172e-01) (7, 2.42004588246345520020e-01) (8, -5.19404590129852294922e-01) (0, -6.63934409618377685547e-01) (1, 6.34971261024475097656e-01) (2, -4.18700873851776123047e-01) (3, 4.42021131515502929688e-01) (4, -6.84632882475852966309e-02) (5, -6.90976753830909729004e-02) (6, -1.26168858259916305542e-02) (7, 2.58016139268875122070e-01) (8, 2.10874423384666442871e-01) (0, 1.14599871635437011719e+00) (1, 6.38570785522460937500e-01) (2, 1.02269482612609863281e+00) (3, 2.98049831390380859375e+00) (4, 2.22763489000499248505e-03) (5, -5.67624866962432861328e-01) (6, 4.23331230878829956055e-01) (7, -3.06177878379821777344e+00) (8, 8.66348385810852050781e-01) (0, 3.53003025054931640625e+00) (1, 4.86821603775024414062e+00) (2, -7.68650114536285400391e-01) (3, 3.07614994049072265625e+00) (4, 2.95039325952529907227e-01) (5, -4.62375497817993164062e+00) (6, -2.53199863433837890625e+00) (7, 2.23085546493530273438e+00) (8, 1.35675817728042602539e-01) (0, -8.43733608722686767578e-01) (1, -1.60742118954658508301e-01) (2, -2.91848242282867431641e-01) (3, 1.65322279930114746094e+00) (4, 1.51342839002609252930e-01) (5, -1.83494448661804199219e+00) (6, -2.81275689601898193359e-01) (7, 6.81979119777679443359e-01) (8, 5.09678363800048828125e-01) (0, -1.12028169631958007812e+00) (1, 3.44505572319030761719e+00) (2, 1.13851141929626464844e+00) (3, 5.51682329177856445312e+00) (4, 4.34732723236083984375e+00) (5, 1.37087953090667724609e+00) (6, 3.03445625305175781250e+00) (7, 6.54582834243774414062e+00) (8, 1.03299725055694580078e+00) (0, -1.93740260601043701172e+00) (1, 1.25520333647727966309e-01) (2, -1.36273130774497985840e-01) (3, 6.15201234817504882812e-01) (4, 4.36503022909164428711e-01) (5, -1.15642619132995605469e+00) (6, -5.14910638332366943359e-01) (7, 3.21787923574447631836e-01) (8, 4.91428583860397338867e-01) (9, 8.38942006230354309082e-02) (10, 4.11774516105651855469e-01) (11, -1.25857412815093994141e-01) (12, 8.14355194568634033203e-01) (13, 1.60596227645874023438e+00) (14, 1.93670228123664855957e-01) (15, 2.15733790397644042969e+00) (16, -1.67616069316864013672e-01) (17, 1.43028542399406433105e-01) (18, -1.05382621288299560547e+00) (19, 3.31559324264526367188e+00) (20, 1.00030529499053955078e+00) (21, -9.77762758731842041016e-01) (22, -4.77819174528121948242e-01) (23, 1.30627644062042236328e+00) (24, 4.65310186147689819336e-01) (25, 4.30840969085693359375e-01) (26, -5.00673353672027587891e-01) (27, 2.34154835343360900879e-01) (28, 2.34618559479713439941e-02) (29, 1.21895551681518554688e+00) (9, 8.38263392448425292969e-01) (10, 8.46151351928710937500e-01) (11, -1.54717326164245605469e+00) (12, 2.51435971260070800781e+00) (13, -1.63037288188934326172e+00) (14, 2.57125109434127807617e-01) (15, 1.42451751232147216797e+00) (16, 2.51655548810958862305e-01) (17, -1.71306561678647994995e-02) (18, 4.60127979516983032227e-01) (19, 1.51131224632263183594e+00) (20, -4.22047108411788940430e-01) (21, 1.83216214179992675781e+00) (22, 2.38263905048370361328e-01) (23, 4.65430289506912231445e-01) (24, 2.50262236595153808594e+00) (25, -3.21348875761032104492e-01) (26, -6.52210652828216552734e-01) (27, 8.27680587768554687500e-01) (28, 9.53100144863128662109e-01) (29, 4.66950595378875732422e-01) (9, 5.88836729526519775391e-01) (10, 3.99182605743408203125e+00) (11, 1.73957920074462890625e+00) (12, 1.56809306144714355469e+00) (13, 1.65089774131774902344e+00) (14, 5.46935319900512695312e-01) (15, -2.57592737674713134766e-01) (16, 3.47709923982620239258e-01) (17, 7.98341035842895507812e-01) (18, -6.88733756542205810547e-01) (19, 7.46552133560180664062e+00) (20, 3.49587631225585937500e+00) (21, 4.38923805952072143555e-01) (22, 8.28176617622375488281e-01) (23, 2.62298297882080078125e+00) (24, 2.10574293136596679688e+00) (25, -4.60795432329177856445e-01) (26, 3.08371138572692871094e+00) (27, -2.72333145141601562500e-01) (28, 8.45608413219451904297e-01) (29, -1.11077293753623962402e-01) (9, 5.79501330852508544922e-01) (10, 2.62974619865417480469e+00) (11, 3.01391959190368652344e-01) (12, 6.33090853691101074219e-01) (13, -1.07998561859130859375e+00) (14, 7.52088427543640136719e-01) (15, 1.84761032462120056152e-01) (16, 2.71647751331329345703e-01) (17, 7.35608935356140136719e-01) (18, -2.13402241468429565430e-01) (19, 7.69119930267333984375e+00) (20, 1.23767077922821044922e+00) (21, 1.14259564876556396484e+00) (22, -3.24770450592041015625e-01) (23, 1.43965148925781250000e+01) (24, -1.48853898048400878906e+00) (25, -6.28808677196502685547e-01) (26, 7.32552468776702880859e-01) (27, -9.64141041040420532227e-02) (28, 7.03824222087860107422e-01) (29, 6.28341317176818847656e-01) (9, -2.33115032315254211426e-01) (10, 1.19815170764923095703e-02) (11, 2.27737593650817871094e+00) (12, 1.26124608516693115234e+00) (13, 6.69931411743164062500e-01) (14, 5.25919795036315917969e-02) (15, 7.01480627059936523438e-01) (16, 9.33009266853332519531e-01) (17, 8.81097853183746337891e-01) (18, 6.11039459705352783203e-01) (19, 5.75503408908843994141e-01) (20, 7.09338605403900146484e-01) (21, 4.75878804922103881836e-01) (22, 3.70337694883346557617e-01) (23, -2.74440139532089233398e-01) (24, -1.25956833362579345703e+00) (25, -8.36255013942718505859e-01) (26, 3.02435576915740966797e-01) (27, 8.74871075153350830078e-01) (28, -2.75621533393859863281e+00) (29, -1.96045652031898498535e-01) (9, -2.04979228973388671875e+00) (10, 4.92143630981445312500e-01) (11, 1.09481759369373321533e-01) (12, -2.21902656555175781250e+00) (13, 5.49954213201999664307e-02) (14, -2.14309111237525939941e-01) (15, 8.56097519397735595703e-01) (16, -1.28675425052642822266e+00) (17, -1.63786619901657104492e-01) (18, 8.02515685558319091797e-01) (19, 5.83556234836578369141e-01) (20, 1.75408899784088134766e+00) (21, -1.34248280525207519531e+00) (22, -2.01366394758224487305e-01) (23, 7.37158238887786865234e-01) (24, -2.45695662498474121094e+00) (25, 7.25214540958404541016e-01) (26, 2.28364437818527221680e-01) (27, -3.93720656633377075195e-01) (28, -1.07255578041076660156e-02) (29, 3.92759174108505249023e-01) (9, -9.47095751762390136719e-01) (10, -1.41455698013305664062e+00) (11, 5.05557715892791748047e-01) (12, 1.37449300289154052734e+00) (13, -4.09077674150466918945e-01) (14, 5.75962781906127929688e-01) (15, 9.85208690166473388672e-01) (16, -8.57072889804840087891e-01) (17, 8.43398034572601318359e-01) (18, 8.10895562171936035156e-02) (19, 1.32228374481201171875e+00) (20, 4.61874216794967651367e-01) (21, -1.67000567913055419922e+00) (22, 1.81524828076362609863e-01) (23, 9.81432437896728515625e-01) (24, -2.40671515464782714844e+00) (25, -6.10748946666717529297e-01) (26, 6.80480957031250000000e-01) (27, 6.13324761390686035156e-01) (28, 4.61144745349884033203e-01) (29, -3.48177999258041381836e-01) (9, 2.89005088806152343750e+00) (10, 2.80861884355545043945e-01) (11, -5.95211207866668701172e-01) (12, 6.26629114151000976562e+00) (13, 6.72186434268951416016e-01) (14, -1.15009814500808715820e-01) (15, 1.17439076304435729980e-01) (16, 9.31307017803192138672e-01) (17, 8.67288038134574890137e-02) (18, 2.35437244176864624023e-01) (19, 7.11207315325736999512e-02) (20, 3.46388387680053710938e+00) (21, 2.75410562753677368164e-01) (22, 2.85180592536926269531e+00) (23, 2.10816645622253417969e+00) (24, 2.02326878905296325684e-01) (25, -7.97601938247680664062e-01) (26, -6.65920227766036987305e-02) (27, 8.26376676559448242188e-01) (28, 9.09545898437500000000e+00) (29, 9.48073625564575195312e-01) (9, 1.32755124568939208984e+00) (10, -5.26512026786804199219e-01) (11, 6.33171141147613525391e-01) (12, -1.33828222751617431641e+00) (13, -2.12415397167205810547e-01) (14, 1.58377900719642639160e-01) (15, -1.30388453602790832520e-01) (16, 9.43004965782165527344e-01) (17, 2.25387737154960632324e-02) (18, 3.93037462234497070312e+00) (19, 3.93599367141723632812e+00) (20, 4.46845710277557373047e-01) (21, 2.46129870414733886719e-01) (22, 2.46318483352661132812e+00) (23, 1.87596648931503295898e-01) (24, 3.79476928710937500000e+00) (25, 2.24370360374450683594e-01) (26, 1.66254341602325439453e+00) (27, 4.00532293319702148438e+00) (28, 6.12629234790802001953e-01) (29, 6.90966308116912841797e-01) (9, 2.59213542938232421875e+00) (10, 1.60556435585021972656e+00) (11, 2.95686036348342895508e-01) (12, 1.65800940990447998047e+00) (13, -3.72654050588607788086e-02) (14, -1.15642905235290527344e+00) (15, 1.66402712464332580566e-01) (16, 4.02763175964355468750e+00) (17, 1.58129155635833740234e+00) (18, 5.44185638427734375000e+00) (19, -1.14808225631713867188e+01) (20, 3.28278958797454833984e-01) (21, 2.65345144271850585938e+00) (22, 6.01582288742065429688e-01) (23, 1.47622537612915039062e+01) (24, 3.40922307968139648438e+00) (25, 6.12977981567382812500e-01) (26, -1.34777292609214782715e-01) (27, 6.40756487846374511719e-02) (28, -1.42614114284515380859e+00) (29, -3.54876548051834106445e-01) (9, -2.49472761154174804688e+00) (10, -1.38207566738128662109e+00) (11, -4.52896982431411743164e-01) (12, -1.42218911647796630859e+00) (13, -6.68422430753707885742e-02) (14, 7.16917705535888671875e+00) (15, 8.53458642959594726562e-02) (16, 1.28037825226783752441e-01) (17, 4.54173183441162109375e+00) (18, -2.03928370028734207153e-02) (19, -7.76997089385986328125e-01) (20, 1.44952523708343505859e+00) (21, 1.65365254878997802734e+00) (22, 2.62397646903991699219e+00) (23, -6.38737976551055908203e-01) (24, 1.31475317478179931641e+00) (25, 3.20715159177780151367e-01) (26, 1.02490389347076416016e+00) (27, 5.74482738971710205078e-01) (28, 2.34317198395729064941e-01) (29, 5.64903795719146728516e-01) (9, 1.51996767520904541016e+00) (10, -2.95707672834396362305e-01) (11, 9.10199105739593505859e-01) (12, -5.85112392902374267578e-01) (13, -2.66456365585327148438e-01) (14, 9.68109369277954101562e-01) (15, 1.23673431575298309326e-01) (16, 6.44577980041503906250e-01) (17, 4.06441930681467056274e-03) (18, 5.36273598670959472656e-01) (19, 9.37961816787719726562e-01) (20, 5.95370233058929443359e-01) (21, -3.89494448900222778320e-01) (22, -3.46670001745223999023e-01) (23, -2.22102522850036621094e-01) (24, -8.29857826232910156250e-01) (25, 6.65456593036651611328e-01) (26, 1.36533483862876892090e-01) (27, -5.33609926700592041016e-01) (28, 6.03381544351577758789e-02) (29, -2.36158624291419982910e-01) (30, 4.51033294200897216797e-01) (31, 6.94880723953247070312e-01) (32, 8.06515395641326904297e-01) (33, -8.52992594242095947266e-01) (34, 1.26265212893486022949e-01) (35, 1.04909205436706542969e+00) (36, 4.08448815345764160156e-01) (37, -4.99233156442642211914e-01) (38, -6.05494678020477294922e-01) (39, 2.18369096517562866211e-01) (40, 5.24964570999145507812e-01) (41, 1.14316499233245849609e+00) (42, 3.94284784793853759766e-01) (30, -5.79754412174224853516e-01) (31, 6.22914493083953857422e-01) (32, 1.14961647987365722656e+00) (33, -7.17007637023925781250e-01) (34, -2.60711401700973510742e-01) (35, 1.02213907241821289062e+00) (36, 2.58760731667280197144e-02) (37, -6.61890268325805664062e-01) (38, 1.93210065364837646484e-01) (39, 2.91932988911867141724e-02) (40, -4.72290068864822387695e-02) (41, 2.11746215820312500000e-01) (42, 6.82239472866058349609e-01) (30, 6.40533983707427978516e-01) (31, 5.59633672237396240234e-01) (32, 6.31350755691528320312e-01) (33, -8.85556280612945556641e-01) (34, 1.95494666695594787598e-01) (35, 1.33697390556335449219e+00) (36, 3.74321460723876953125e-01) (37, -4.13077294826507568359e-01) (38, 7.68042147159576416016e-01) (39, -9.42567169666290283203e-01) (40, 5.98255455493927001953e-01) (41, 1.04374229907989501953e+00) (42, 1.25910580158233642578e-01) (30, 7.61589765548706054688e-01) (31, 7.59420573711395263672e-01) (32, 5.91522991657257080078e-01) (33, -6.91065251827239990234e-01) (34, 4.13223028182983398438e-01) (35, 1.40568172931671142578e+00) (36, 8.19619894027709960938e-01) (37, -6.39567375183105468750e-01) (38, 6.38131380081176757812e-01) (39, -1.12372207641601562500e+00) (40, 7.85873949527740478516e-01) (41, 1.70730519294738769531e+00) (42, 3.00040692090988159180e-01) (30, -6.80823445320129394531e-01) (31, 9.25549328327178955078e-01) (32, 3.35506886243820190430e-01) (33, -3.23387272655963897705e-02) (34, 2.87160277366638183594e-01) (35, 8.28054130077362060547e-01) (36, 1.60632658004760742188e+00) (37, -3.50811570882797241211e-01) (38, 1.72992229461669921875e+00) (39, -3.98578137159347534180e-01) (40, 1.20021843910217285156e+00) (41, -2.89832032285630702972e-03) (42, -3.94004821777343750000e-01) (30, 4.25368726253509521484e-01) (31, 6.62919282913208007812e-01) (32, 1.40732675790786743164e-01) (33, -1.69456779956817626953e-01) (34, 1.31715810298919677734e+00) (35, 1.12079107761383056641e+00) (36, 1.44263172149658203125e+00) (37, -3.36019605398178100586e-01) (38, 1.36895692348480224609e+00) (39, -6.45558893680572509766e-01) (40, 1.95891761779785156250e+00) (41, 2.50096738338470458984e-01) (42, -1.21462352573871612549e-01) (30, -1.63831269741058349609e+00) (31, 6.58806145191192626953e-01) (32, 7.21339702606201171875e-01) (33, 2.84882336854934692383e-01) (34, 6.11108899116516113281e-01) (35, 4.33472335338592529297e-01) (36, 8.62842321395874023438e-01) (37, -1.72792911529541015625e-01) (38, -9.99522209167480468750e-03) (39, 4.91291344165802001953e-01) (40, 7.81098425388336181641e-01) (41, 3.48835229873657226562e-01) (42, 3.33317637443542480469e-01) (30, -1.26675605773925781250e+00) (31, 8.74526143074035644531e-01) (32, 9.92513775825500488281e-01) (33, -6.79721653461456298828e-01) (34, 2.48437017202377319336e-01) (35, 5.67864298820495605469e-01) (36, 1.15926957130432128906e+00) (37, 3.96731048822402954102e-02) (38, 1.23207986354827880859e-01) (39, 6.53167843818664550781e-01) (40, 1.04579913616180419922e+00) (41, -1.40632167458534240723e-01) (42, 4.14516627788543701172e-02) 