FANN_FLO_2.1
num_layers=4
learning_rate=0.700000
connection_rate=1.000000
network_type=0
learning_momentum=0.000000
training_algorithm=2
train_error_function=1
train_stop_function=0
cascade_output_change_fraction=0.010000
quickprop_decay=-0.000100
quickprop_mu=1.750000
rprop_increase_factor=1.200000
rprop_decrease_factor=0.500000
rprop_delta_min=0.000000
rprop_delta_max=50.000000
rprop_delta_zero=0.100000
cascade_output_stagnation_epochs=12
cascade_candidate_change_fraction=0.010000
cascade_candidate_stagnation_epochs=12
cascade_max_out_epochs=150
cascade_min_out_epochs=50
cascade_max_cand_epochs=150
cascade_min_cand_epochs=50
cascade_num_candidate_groups=2
bit_fail_limit=3.49999994039535522461e-01
cascade_candidate_limit=1.00000000000000000000e+03
cascade_weight_multiplier=4.00000005960464477539e-01
cascade_activation_functions_count=10
cascade_activation_functions=3 5 7 8 10 11 14 15 16 17 
cascade_activation_steepnesses_count=4
cascade_activation_steepnesses=2.50000000000000000000e-01 5.00000000000000000000e-01 7.50000000000000000000e-01 1.00000000000000000000e+00 
layer_sizes=9 21 13 9 
scale_included=0
neurons (num_inputs, activation_function, activation_steepness)=(0, 0, 0.00000000000000000000e+00) (0, 0, 0.00000000000000000000e+00) (0, 0, 0.00000000000000000000e+00) (0, 0, 0.00000000000000000000e+00) (0, 0, 0.00000000000000000000e+00) (0, 0, 0.00000000000000000000e+00) (0, 0, 0.00000000000000000000e+00) (0, 0, 0.00000000000000000000e+00) (0, 0, 0.00000000000000000000e+00) (9, 5, 5.00000000000000000000e-01) (9, 5, 5.00000000000000000000e-01) (9, 5, 5.00000000000000000000e-01) (9, 5, 5.00000000000000000000e-01) (9, 5, 5.00000000000000000000e-01) (9, 5, 5.00000000000000000000e-01) (9, 5, 5.00000000000000000000e-01) (9, 5, 5.00000000000000000000e-01) (9, 5, 5.00000000000000000000e-01) (9, 5, 5.00000000000000000000e-01) (9, 5, 5.00000000000000000000e-01) (9, 5, 5.00000000000000000000e-01) (9, 5, 5.00000000000000000000e-01) (9, 5, 5.00000000000000000000e-01) (9, 5, 5.00000000000000000000e-01) (9, 5, 5.00000000000000000000e-01) (9, 5, 5.00000000000000000000e-01) (9, 5, 5.00000000000000000000e-01) (9, 5, 5.00000000000000000000e-01) (9, 5, 5.00000000000000000000e-01) (0, 5, 0.00000000000000000000e+00) (21, 5, 5.00000000000000000000e-01) (21, 5, 5.00000000000000000000e-01) (21, 5, 5.00000000000000000000e-01) (21, 5, 5.00000000000000000000e-01) (21, 5, 5.00000000000000000000e-01) (21, 5, 5.00000000000000000000e-01) (21, 5, 5.00000000000000000000e-01) (21, 5, 5.00000000000000000000e-01) (21, 5, 5.00000000000000000000e-01) (21, 5, 5.00000000000000000000e-01) (21, 5, 5.00000000000000000000e-01) (21, 5, 5.00000000000000000000e-01) (0, 5, 0.00000000000000000000e+00) (13, 5, 5.00000000000000000000e-01) (13, 5, 5.00000000000000000000e-01) (13, 5, 5.00000000000000000000e-01) (13, 5, 5.00000000000000000000e-01) (13, 5, 5.00000000000000000000e-01) (13, 5, 5.00000000000000000000e-01) (13, 5, 5.00000000000000000000e-01) (13, 5, 5.00000000000000000000e-01) (0, 5, 0.00000000000000000000e+00) 
connections (connected_to_neuron, weight)=(0, 2.16792270541191101074e-01) (1, 8.42508375644683837891e-01) (2, -2.25152090191841125488e-01) (3, 3.64025384187698364258e-01) (4, -2.31602385640144348145e-01) (5, 6.22517645359039306641e-01) (6, -2.46156644821166992188e+00) (7, 1.05540931224822998047e+00) (8, 1.80340796709060668945e-01) (0, 3.93219447135925292969e+00) (1, 2.91764736175537109375e+00) (2, -2.57530879974365234375e+00) (3, 3.90748620033264160156e-01) (4, -8.61204504966735839844e-01) (5, 3.69778841733932495117e-01) (6, -1.97425305843353271484e-01) (7, 1.01533639430999755859e+00) (8, -1.68762505054473876953e-01) (0, 3.62330377101898193359e-01) (1, 2.83565759658813476562e-01) (2, 9.23088908195495605469e-01) (3, 2.41244912147521972656e+00) (4, 1.32244849205017089844e+00) (5, 2.46010923385620117188e+00) (6, 3.10147571563720703125e+00) (7, 9.25713896751403808594e-01) (8, 7.98775911331176757812e-01) (0, 1.22468471527099609375e+00) (1, -2.79502391815185546875e-01) (2, 2.46395543217658996582e-01) (3, -1.85898512601852416992e-01) (4, 1.17783062160015106201e-01) (5, 1.34107327461242675781e+00) (6, -8.14132764935493469238e-02) (7, 3.05859632790088653564e-02) (8, 4.65324848890304565430e-01) (0, 1.66672527790069580078e+00) (1, -2.17561990022659301758e-01) (2, 1.63243758678436279297e+00) (3, 3.62594217061996459961e-01) (4, 2.91373640298843383789e-01) (5, 3.96506488323211669922e-01) (6, -5.17756700515747070312e-01) (7, 2.46313840150833129883e-01) (8, 1.34487855434417724609e+00) (0, -6.44790530204772949219e-01) (1, 5.20867168903350830078e-01) (2, -1.48435688018798828125e+00) (3, -6.29579365253448486328e-01) (4, -7.67815172672271728516e-01) (5, 2.53433436155319213867e-01) (6, -2.00213909149169921875e-01) (7, 1.19107639789581298828e+00) (8, 1.19975879788398742676e-01) (0, 2.23185420036315917969e-02) (1, 4.12382173538208007812e+00) (2, 8.44493627548217773438e-01) (3, 2.64337801933288574219e+00) (4, -2.10242584347724914551e-01) (5, -8.23169589042663574219e-01) (6, 3.03720760345458984375e+00) (7, 1.30367159843444824219e+00) (8, 2.50899744033813476562e+00) (0, -6.37569308280944824219e-01) (1, -5.34808039665222167969e-01) (2, 1.20868945121765136719e+00) (3, 1.29477655887603759766e+00) (4, 2.20521152019500732422e-01) (5, 3.77579152584075927734e-01) (6, 1.23085975646972656250e+00) (7, 1.32578778266906738281e+00) (8, -1.03435719013214111328e+00) (0, -2.28483295440673828125e+00) (1, -1.42093390226364135742e-01) (2, 8.36870193481445312500e+00) (3, -1.11524987220764160156e+00) (4, 1.25639960169792175293e-01) (5, -1.93697378039360046387e-01) (6, -6.13786220550537109375e+00) (7, -4.64287549257278442383e-01) (8, 3.60233640670776367188e+00) (0, 7.31298506259918212891e-01) (1, 7.63983845710754394531e-01) (2, -5.27667403221130371094e-01) (3, 8.20227444171905517578e-01) (4, 3.44167798757553100586e-01) (5, 2.60123401880264282227e-01) (6, 4.00326430797576904297e-01) (7, -1.93967074155807495117e-01) (8, -4.42549884319305419922e-01) (0, 6.17090582847595214844e-01) (1, 5.37207543849945068359e-01) (2, 7.32019424438476562500e-01) (3, 1.26373648643493652344e+00) (4, 1.71538010239601135254e-01) (5, 2.32295200228691101074e-01) (6, 1.64058819413185119629e-01) (7, 5.32350480556488037109e-01) (8, 3.47909927368164062500e-01) (0, 5.54375886917114257812e-01) (1, 4.14092630147933959961e-01) (2, 3.79030443727970123291e-02) (3, 2.86004552617669105530e-03) (4, 4.43310201168060302734e-01) (5, -1.00495405495166778564e-01) (6, -8.51277112960815429688e-02) (7, -3.38201582431793212891e-01) (8, 2.73341417312622070312e-01) (0, -7.08395361900329589844e-01) (1, 6.48191571235656738281e-01) (2, 1.36195254325866699219e+00) (3, -7.98128023743629455566e-02) (4, -2.04059553146362304688e+00) (5, 1.04896485805511474609e+00) (6, -2.42968988418579101562e+00) (7, 1.09836101531982421875e+00) (8, 8.26615467667579650879e-02) (0, 6.47216200828552246094e-01) (1, -1.20699241757392883301e-01) (2, -4.87128734588623046875e+00) (3, 1.85696017742156982422e+00) (4, -2.69988393783569335938e+00) (5, 2.99821519851684570312e+00) (6, -2.82293462753295898438e+00) (7, 1.16357350349426269531e+00) (8, 5.22464752197265625000e-01) (0, 4.42230075597763061523e-01) (1, 1.52499771118164062500e+00) (2, 1.89275014400482177734e+00) (3, 5.07768571376800537109e-01) (4, 2.13869571685791015625e+00) (5, 7.23782122135162353516e-01) (6, 3.52609097957611083984e-01) (7, 6.47495329380035400391e-01) (8, 9.60680469870567321777e-02) (0, 3.96472907066345214844e+00) (1, -2.82773423194885253906e+00) (2, 1.18829739093780517578e+00) (3, 7.92912021279335021973e-02) (4, 1.81637954711914062500e+01) (5, 4.52493429183959960938e+00) (6, 1.04019927978515625000e+00) (7, 1.48326706886291503906e+00) (8, 2.32371553778648376465e-01) (0, -5.91533184051513671875e-02) (1, 5.08443750441074371338e-02) (2, 4.47727108001708984375e+00) (3, 6.10458195209503173828e-01) (4, -7.21296146512031555176e-02) (5, -7.47609734535217285156e-01) (6, 6.71878516674041748047e-01) (7, 5.32188892364501953125e-01) (8, 1.83528435230255126953e+00) (0, 2.79917269945144653320e-01) (1, -1.52002898976206779480e-02) (2, 1.52021571993827819824e-01) (3, 4.22424703836441040039e-01) (4, 7.93131113052368164062e-01) (5, 9.40845727920532226562e-01) (6, -1.10609747469425201416e-01) (7, -8.00121501088142395020e-02) (8, 1.74996864795684814453e+00) (0, 2.30788841843605041504e-01) (1, 2.93559622764587402344e+00) (2, -2.54244618117809295654e-02) (3, -2.67431795597076416016e-01) (4, 8.30487385392189025879e-02) (5, 2.38120198249816894531e-01) (6, -1.53875946998596191406e-01) (7, -2.40438684821128845215e-01) (8, 5.82483172416687011719e-01) (0, 3.23749363422393798828e-01) (1, 1.50994166731834411621e-01) (2, -1.74421250820159912109e-01) (3, -7.48850777745246887207e-02) (4, -4.61980491876602172852e-01) (5, 1.08801342546939849854e-01) (6, -3.37191641330718994141e-01) (7, -1.02569721639156341553e-01) (8, 6.31334543228149414062e-01) (9, -2.56890952587127685547e-01) (10, 3.41197162866592407227e-01) (11, 2.36456841230392456055e-01) (12, 4.85967516899108886719e-01) (13, 1.41047406196594238281e+00) (14, 9.32093024253845214844e-01) (15, 2.42921371459960937500e+01) (16, 4.57848370075225830078e-01) (17, 4.15867030620574951172e-01) (18, -1.22390186786651611328e+00) (19, 2.53153353929519653320e-01) (20, 2.72804713249206542969e+00) (21, 8.90012979507446289062e-01) (22, -6.94231986999511718750e-01) (23, 5.13270616531372070312e-01) (24, 7.53615349531173706055e-02) (25, 4.67750370502471923828e-01) (26, -1.10392555594444274902e-01) (27, -2.50145459175109863281e+00) (28, 1.15452075004577636719e+00) (29, 1.76314920186996459961e-01) (9, -5.98848998546600341797e-01) (10, -2.98420965671539306641e-01) (11, 3.65357309579849243164e-01) (12, -1.35372459888458251953e+00) (13, 2.58532452583312988281e+00) (14, -9.91691797971725463867e-02) (15, 2.86250495910644531250e+00) (16, 2.82539248466491699219e+00) (17, -1.98314450681209564209e-02) (18, -1.56716060638427734375e+00) (19, -1.41118988394737243652e-01) (20, 6.56711876392364501953e-01) (21, 3.95971506834030151367e-01) (22, -1.84900033473968505859e+00) (23, -4.16786409914493560791e-02) (24, -1.56152978539466857910e-01) (25, 1.05168380737304687500e+01) (26, -6.40145778656005859375e-01) (27, 5.79280197620391845703e-01) (28, 6.18998587131500244141e-01) (29, 2.78176099061965942383e-01) (9, -2.01805382966995239258e-01) (10, -2.36852973699569702148e-01) (11, -3.06276589632034301758e-01) (12, 1.32201254367828369141e-01) (13, 1.03184252977371215820e-01) (14, 5.15217065811157226562e-01) (15, -9.16993468999862670898e-02) (16, 4.27693426609039306641e-01) (17, -2.02097907662391662598e-01) (18, 9.95869219303131103516e-01) (19, -2.39713847637176513672e-01) (20, 2.40897566080093383789e-01) (21, 2.24199935793876647949e-01) (22, -1.19246400892734527588e-01) (23, -3.70073109865188598633e-01) (24, 1.15555487573146820068e-01) (25, 1.69713258743286132812e-01) (26, 4.24869149923324584961e-01) (27, 1.98377817869186401367e-01) (28, 8.45261216163635253906e-02) (29, -3.76117587089538574219e-01) (9, 2.20911478996276855469e+00) (10, 2.57592856884002685547e-01) (11, -4.68091845512390136719e-01) (12, 3.44197988510131835938e+00) (13, -7.33987912535667419434e-02) (14, -4.23775815963745117188e+00) (15, 6.85230779647827148438e+00) (16, -4.22581911087036132812e-01) (17, -5.15086174011230468750e-01) (18, -1.83448672294616699219e+00) (19, 2.94792860746383666992e-01) (20, 4.25452995300292968750e+00) (21, -2.27150827646255493164e-01) (22, -9.90754365921020507812e-01) (23, -3.10514420270919799805e-01) (24, 3.23984527587890625000e+00) (25, 1.19829964637756347656e+00) (26, 1.53455531597137451172e+00) (27, 3.09725672006607055664e-01) (28, 1.02711558341979980469e-01) (29, 5.46498596668243408203e-01) (9, 2.16927647590637207031e+00) (10, 4.98855113983154296875e-01) (11, 3.41838431358337402344e+00) (12, 7.49818563461303710938e-01) (13, 1.38488304615020751953e+00) (14, 5.55429399013519287109e-01) (15, -5.98030269145965576172e-01) (16, -6.03204332292079925537e-02) (17, 1.02119886875152587891e+00) (18, -5.51602125167846679688e-01) (19, -1.60009241104125976562e+00) (20, -2.08168089389801025391e-01) (21, 7.17413783073425292969e-01) (22, 3.83466333150863647461e-01) (23, 5.54880714416503906250e+00) (24, 5.92854022979736328125e-01) (25, 4.97301071882247924805e-01) (26, 1.27339828014373779297e+00) (27, 1.13882315158843994141e+00) (28, 6.39473721385002136230e-02) (29, 1.81723490357398986816e-01) (9, 7.00963661074638366699e-02) (10, 2.59385734796524047852e-01) (11, -1.37205585837364196777e-01) (12, -6.48620426654815673828e-01) (13, 4.37783896923065185547e-01) (14, 1.03108853101730346680e-01) (15, 5.76873481273651123047e-01) (16, 6.51683509349822998047e-01) (17, 3.84239673614501953125e-01) (18, 1.72577619552612304688e+00) (19, -4.40495982766151428223e-02) (20, 4.64390367269515991211e-01) (21, -4.88716572523117065430e-01) (22, -2.36649975180625915527e-01) (23, 8.86336982250213623047e-01) (24, -8.42156559228897094727e-02) (25, 1.74570396542549133301e-01) (26, -4.34448450803756713867e-01) (27, 2.63263255357742309570e-01) (28, 8.96664559841156005859e-01) (29, 1.97434186935424804688e-01) (9, -1.65473127365112304688e+00) (10, 2.59563112258911132812e+00) (11, -2.16798603534698486328e-01) (12, -1.10458254814147949219e+00) (13, 2.71515917778015136719e+00) (14, -1.56286513805389404297e+00) (15, 1.96137583255767822266e+00) (16, 2.07197308540344238281e-01) (17, 1.59608578681945800781e+00) (18, 9.93537425994873046875e-01) (19, 2.69199037551879882812e+00) (20, 5.07188677787780761719e-01) (21, 1.00286114215850830078e+00) (22, 6.78055047988891601562e-01) (23, 2.91246831417083740234e-01) (24, -1.12162101268768310547e+00) (25, 5.04767119884490966797e-01) (26, -3.51517319679260253906e-01) (27, 2.34051316976547241211e-01) (28, 3.05497348308563232422e-01) (29, 7.82670021057128906250e-01) (9, 1.14962029457092285156e+00) (10, -3.23212146759033203125e-01) (11, 1.76307544112205505371e-01) (12, 1.19593453407287597656e+00) (13, -4.91962730884552001953e-02) (14, 7.39614009857177734375e-01) (15, 3.91171753406524658203e-01) (16, 1.40920192003250122070e-01) (17, -7.97585621476173400879e-02) (18, -3.98632764816284179688e-01) (19, 5.14114856719970703125e-01) (20, -5.42903468012809753418e-02) (21, -3.83945047855377197266e-01) (22, 4.38582636415958404541e-02) (23, 5.70228993892669677734e-01) (24, -3.98481518030166625977e-01) (25, -9.57217738032341003418e-02) (26, 5.80070197582244873047e-01) (27, -2.50090211629867553711e-01) (28, 3.05736422538757324219e-01) (29, 2.06908017396926879883e-01) (9, -3.29616107046604156494e-02) (10, 1.10026454925537109375e+00) (11, 2.20590010285377502441e-01) (12, -1.73160031437873840332e-01) (13, 4.90864664316177368164e-01) (14, 7.98136144876480102539e-02) (15, 2.22091698646545410156e+00) (16, 1.09332323074340820312e-01) (17, 3.61128139495849609375e+00) (18, 5.40592908859252929688e+00) (19, 4.52925801277160644531e-01) (20, 1.18385660648345947266e+00) (21, 4.79510188102722167969e-01) (22, 2.65183258056640625000e+00) (23, -1.32130193710327148438e+00) (24, -3.90208721160888671875e-01) (25, 4.45627987384796142578e-01) (26, 1.32656564712524414062e+01) (27, 5.13701736927032470703e-01) (28, 7.38132655620574951172e-01) (29, 8.87622714042663574219e-01) (9, -5.41984617710113525391e-01) (10, -1.69667625427246093750e+00) (11, 1.01546430587768554688e+00) (12, -3.08813691139221191406e-01) (13, 7.36676037311553955078e-01) (14, 2.74792003631591796875e+00) (15, 8.31361579895019531250e+00) (16, 1.63020476698875427246e-01) (17, 4.70916122198104858398e-01) (18, 1.68969953060150146484e+00) (19, -9.84865054488182067871e-02) (20, -1.43483984470367431641e+00) (21, -5.89053630828857421875e-01) (22, -1.22517812252044677734e+00) (23, 1.08486235141754150391e+00) (24, 1.25105965137481689453e+00) (25, 5.11511601507663726807e-02) (26, 2.67605638504028320312e+00) (27, 3.99246722459793090820e-01) (28, 4.86420065164566040039e-01) (29, 1.08207023143768310547e+00) (9, 8.02049636840820312500e-01) (10, 6.68940961360931396484e-01) (11, -2.06334993243217468262e-01) (12, -7.22711145877838134766e-01) (13, 5.84652781486511230469e-01) (14, -5.20915567874908447266e-01) (15, 5.46970903873443603516e-01) (16, -2.55057483911514282227e-01) (17, 2.23053187131881713867e-01) (18, 1.93224132061004638672e-01) (19, 8.02633583545684814453e-01) (20, 6.82672381401062011719e-01) (21, 2.59822398424148559570e-01) (22, 5.27882874011993408203e-01) (23, 5.19669651985168457031e-01) (24, -7.52670466899871826172e-01) (25, 8.98697376251220703125e-02) (26, -4.45253372192382812500e-01) (27, -2.35938265919685363770e-01) (28, -1.00545726716518402100e-01) (29, 9.21990692615509033203e-01) (9, -2.81690452247858047485e-02) (10, 4.12472993135452270508e-01) (11, -6.65436625480651855469e-01) (12, -1.21555700898170471191e-01) (13, -1.14807710051536560059e-01) (14, 1.10321688652038574219e+00) (15, 4.23280000686645507812e-01) (16, 5.54236948490142822266e-01) (17, -2.35242962837219238281e+00) (18, 1.33615672588348388672e+00) (19, -2.51704752445220947266e-01) (20, 4.54315215349197387695e-01) (21, -1.66018891334533691406e+00) (22, 6.33575379848480224609e-01) (23, -5.22300183773040771484e-01) (24, 2.83835083246231079102e-03) (25, -5.72712230682373046875e+00) (26, -1.70859798789024353027e-01) (27, 5.83458304405212402344e-01) (28, 1.39763379096984863281e+00) (29, -3.80627363920211791992e-01) (30, -1.52322620153427124023e-01) (31, 8.33847001194953918457e-02) (32, 1.93500268459320068359e+00) (33, 9.22390699386596679688e-01) (34, -9.49672281742095947266e-01) (35, 7.33470022678375244141e-01) (36, -5.88639006018638610840e-02) (37, 1.27854496240615844727e-01) (38, -1.59301251173019409180e-01) (39, 4.68591779470443725586e-01) (40, -2.57490366697311401367e-01) (41, 1.73619508743286132812e-01) (42, -1.19677804410457611084e-01) (30, 1.87722995877265930176e-01) (31, 5.14251172542572021484e-01) (32, 1.88532602787017822266e+00) (33, 1.46852657198905944824e-01) (34, -2.42194056510925292969e-01) (35, 2.05083653330802917480e-01) (36, 3.67466360330581665039e-01) (37, -1.47981435060501098633e-01) (38, 3.25581550598144531250e-01) (39, -1.23972199857234954834e-01) (40, -4.26861673593521118164e-01) (41, 7.46433317661285400391e-01) (42, 9.46605205535888671875e-02) (30, -3.88094224035739898682e-02) (31, 3.46864223480224609375e-01) (32, 1.68132328987121582031e+00) (33, 1.12144194543361663818e-01) (34, -2.28683412075042724609e-01) (35, 5.02836145460605621338e-02) (36, 1.45483747124671936035e-01) (37, -1.91761553287506103516e-01) (38, 3.39716941118240356445e-01) (39, 2.39395409822463989258e-01) (40, -1.43831208348274230957e-01) (41, 3.43129873275756835938e-01) (42, 1.42683997750282287598e-01) (30, 7.63100564479827880859e-01) (31, 1.00077712535858154297e+00) (32, -6.96464061737060546875e-01) (33, 4.83025282621383666992e-01) (34, -3.21779817342758178711e-01) (35, 4.25002455711364746094e-01) (36, -1.69964015483856201172e+00) (37, 5.12463152408599853516e-01) (38, -4.73256796598434448242e-01) (39, 1.70652553439140319824e-01) (40, 2.92989779263734817505e-02) (41, 8.87492179870605468750e-01) (42, 2.12328389286994934082e-01) (30, 3.44036132097244262695e-01) (31, 6.89129590988159179688e-01) (32, 3.81822824478149414062e-01) (33, -2.79955446720123291016e-01) (34, 2.45218947529792785645e-01) (35, -1.71573653817176818848e-01) (36, -5.11763393878936767578e-01) (37, 4.66702103614807128906e-01) (38, 1.52589648962020874023e-01) (39, -2.90770269930362701416e-02) (40, -7.03080296516418457031e-01) (41, 6.03689014911651611328e-01) (42, 2.96730369329452514648e-01) (30, 1.89176812767982482910e-01) (31, 2.79702484607696533203e-01) (32, -2.28320464491844177246e-01) (33, 3.77003282308578491211e-01) (34, -2.89780199527740478516e-01) (35, 2.49881833791732788086e-01) (36, -1.47243547439575195312e+00) (37, 4.84527885913848876953e-01) (38, -3.22289913892745971680e-01) (39, 7.24190115928649902344e-01) (40, -7.17502385377883911133e-02) (41, 9.50841382145881652832e-02) (42, 9.62558090686798095703e-02) (30, 6.93133652210235595703e-01) (31, 4.40194904804229736328e-01) (32, -1.95175111293792724609e-01) (33, 6.97808384895324707031e-01) (34, -3.72838616371154785156e-01) (35, 4.36454385519027709961e-01) (36, -1.29496622085571289062e+00) (37, 9.91872489452362060547e-01) (38, -5.95727503299713134766e-01) (39, -1.92344625247642397881e-04) (40, -4.78963613510131835938e-01) (41, 3.61612439155578613281e-01) (42, 1.10122617334127426147e-02) (30, 5.10895885527133941650e-02) (31, -1.05065025389194488525e-01) (32, 1.79383003711700439453e+00) (33, 2.00888901948928833008e-01) (34, -2.80608981847763061523e-01) (35, 1.43166109919548034668e-02) (36, 2.01363250613212585449e-01) (37, 1.53927087783813476562e-01) (38, 3.90747755765914916992e-01) (39, -3.10163339599967002869e-03) (40, -4.03387367725372314453e-01) (41, -6.10386468470096588135e-02) (42, -5.88892400264739990234e-02) 